digraph Tree {
node [shape=box] ;
0 [label="mean concave points <= 0.051\nentropy = 0.952\nsamples = 455\nvalue = [169, 286]\nclass = benign"] ;
1 [label="worst radius <= 16.83\nentropy = 0.314\nsamples = 282\nvalue = [16, 266]\nclass = benign"] ;
0 -> 1 [labeldistance=2.5, labelangle=45, headlabel="True"] ;
2 [label="area error <= 48.7\nentropy = 0.136\nsamples = 263\nvalue = [5, 258]\nclass = benign"] ;
1 -> 2 ;
3 [label="worst texture <= 30.145\nentropy = 0.091\nsamples = 260\nvalue = [3, 257]\nclass = benign"] ;
2 -> 3 ;
4 [label="entropy = 0.0\nsamples = 225\nvalue = [0, 225]\nclass = benign"] ;
3 -> 4 ;
5 [label="worst radius <= 14.43\nentropy = 0.422\nsamples = 35\nvalue = [3, 32]\nclass = benign"] ;
3 -> 5 ;
6 [label="entropy = 0.0\nsamples = 25\nvalue = [0, 25]\nclass = benign"] ;
5 -> 6 ;
7 [label="mean perimeter <= 86.26\nentropy = 0.881\nsamples = 10\nvalue = [3, 7]\nclass = benign"] ;
5 -> 7 ;
8 [label="area error <= 17.39\nentropy = 0.811\nsamples = 4\nvalue = [3, 1]\nclass = malignant"] ;
7 -> 8 ;
9 [label="entropy = 0.0\nsamples = 1\nvalue = [0, 1]\nclass = benign"] ;
8 -> 9 ;
10 [label="entropy = 0.0\nsamples = 3\nvalue = [3, 0]\nclass = malignant"] ;
8 -> 10 ;
11 [label="entropy = 0.0\nsamples = 6\nvalue = [0, 6]\nclass = benign"] ;
7 -> 11 ;
12 [label="symmetry error <= 0.025\nentropy = 0.918\nsamples = 3\nvalue = [2, 1]\nclass = malignant"] ;
2 -> 12 ;
13 [label="entropy = 0.0\nsamples = 2\nvalue = [2, 0]\nclass = malignant"] ;
12 -> 13 ;
14 [label="entropy = 0.0\nsamples = 1\nvalue = [0, 1]\nclass = benign"] ;
12 -> 14 ;
15 [label="mean texture <= 16.19\nentropy = 0.982\nsamples = 19\nvalue = [11, 8]\nclass = malignant"] ;
1 -> 15 ;
16 [label="entropy = 0.0\nsamples = 6\nvalue = [0, 6]\nclass = benign"] ;
15 -> 16 ;
17 [label="concave points error <= 0.01\nentropy = 0.619\nsamples = 13\nvalue = [11, 2]\nclass = malignant"] ;
15 -> 17 ;
18 [label="entropy = 0.0\nsamples = 11\nvalue = [11, 0]\nclass = malignant"] ;
17 -> 18 ;
19 [label="entropy = 0.0\nsamples = 2\nvalue = [0, 2]\nclass = benign"] ;
17 -> 19 ;
20 [label="worst perimeter <= 114.45\nentropy = 0.517\nsamples = 173\nvalue = [153, 20]\nclass = malignant"] ;
0 -> 20 [labeldistance=2.5, labelangle=-45, headlabel="False"] ;
21 [label="worst texture <= 25.655\nentropy = 0.994\nsamples = 44\nvalue = [24, 20]\nclass = malignant"] ;
20 -> 21 ;
22 [label="worst concave points <= 0.166\nentropy = 0.454\nsamples = 21\nvalue = [2, 19]\nclass = benign"] ;
21 -> 22 ;
23 [label="entropy = 0.0\nsamples = 19\nvalue = [0, 19]\nclass = benign"] ;
22 -> 23 ;
24 [label="entropy = 0.0\nsamples = 2\nvalue = [2, 0]\nclass = malignant"] ;
22 -> 24 ;
25 [label="perimeter error <= 1.558\nentropy = 0.258\nsamples = 23\nvalue = [22, 1]\nclass = malignant"] ;
21 -> 25 ;
26 [label="mean concave points <= 0.053\nentropy = 1.0\nsamples = 2\nvalue = [1, 1]\nclass = malignant"] ;
25 -> 26 ;
27 [label="entropy = 0.0\nsamples = 1\nvalue = [1, 0]\nclass = malignant"] ;
26 -> 27 ;
28 [label="entropy = 0.0\nsamples = 1\nvalue = [0, 1]\nclass = benign"] ;
26 -> 28 ;
29 [label="entropy = 0.0\nsamples = 21\nvalue = [21, 0]\nclass = malignant"] ;
25 -> 29 ;
30 [label="entropy = 0.0\nsamples = 129\nvalue = [129, 0]\nclass = malignant"] ;
20 -> 30 ;
}